digraph Tree {
node [shape=box, fontname="helvetica"] ;
edge [fontname="helvetica"] ;
0 [label="petal width <= 2.45\nentropy = 1.0\nsamples = 70\nvalue = [35, 35]"] ;
1 [label="entropy = 0.0\nsamples = 35\nvalue = [35, 0]"] ;
0 -> 1 [labeldistance=2.5, labelangle=45, headlabel="True"] ;
2 [label="entropy = 0.0\nsamples = 35\nvalue = [0, 35]"] ;
0 -> 2 [labeldistance=2.5, labelangle=-45, headlabel="False"] ;
}